-8.177916482236057272e-01 -5.464993265598598882e-01 -4.041826247247243264e-01 -3.227336792055056636e-01 -1.062839922608203036e+00 -2.311225477531173578e+00 1.262399401790780029e+00 -5.325688336366154463e-01 2.439540989648789349e-01 1.529844366572892245e+00 1.652727936048254520e+00 8.499192798298206286e-01 -1.927311196869743171e+00 3.218099609890965329e-01 1.586311023167840339e+00 -4.739102801697824274e-01 1.836635395067831023e-01 1.788362040395742536e+00 -8.056397304719432606e-01 -1.853717334391341842e-01 1.782455510053303938e+00 2.670797033662660955e-02 -3.651099867147693523e-01 -8.666371537719259610e-01 9.467435875365822762e-01 3.957176026080241327e-01 -3.529336384613237509e-01 5.957194339254783255e-01
-1.256810276248087721e+00 7.501796432967031691e-01 4.382431255736529141e-01 5.474268818058178887e-01 7.899573226769747158e-01 2.035716819680762346e-01 -7.240895095607223775e-01 2.889365567868862339e-01 3.293398030164514378e-01 -1.903447102793969892e+00 1.130828624253902709e-01 -1.047690946555277725e+00 1.260746889177638830e-01 -1.352868292426649077e+00 9.980980929548841640e-01 -1.064119426949379221e-01 -8.115341567642175846e-01 -5.230016171001365954e-01 1.497619797275740350e+00 2.428230325606702267e-01 -8.428460688195359429e-01 1.574283725497521047e+00 -3.259325528951262374e-01 -1.573498379845971407e+00 -4.463310911810636772e-01 -1.753125698136992261e+00 1.418181076006928443e+00 -1.317199038228326069e-01
-2.034701185771820020e-01 1.191728010882164401e+00 -3.375516827532681230e+00 -6.779511739829747752e-01 6.832636705951260214e-02 3.856610203650773783e-01 -1.671103007333091472e+00 -5.077780704741368112e-01 1.147446653386084980e+00 -8.388364904149393508e-01 6.014622670898772672e-01 2.799333874858286331e-01 -1.436294495048423547e+00 -8.986480083556120935e-01 -3.261334969685275587e-01 -4.002438375343137650e-02 9.380892288801142564e-01 -1.845908804463726405e+00 1.121325689251301494e+00 -7.179075453736766255e-01 1.271401910254169043e-01 9.356464397956691936e-01 -6.815150841540950077e-01 6.283656405277347756e-02 4.294190008549323423e-01 -6.898084725224757907e-01 1.093791328538571639e+00 -4.330298187189727810e-01
1.988152806247863502e+00 1.480001835114302056e+00 1.026909757626266240e+00 2.192200058872120216e+00 -5.099202111421770045e-01 6.477742776146104831e-01 -2.433686013414390059e-01 -7.199346526695232784e-01 -1.973840597409391773e+00 -9.604885626004542321e-01 -2.853603632600183460e-01 9.901395713509445473e-01 3.141539068447846139e-02 7.647475979920029809e-01 -2.461304892829725421e-01 -2.268321253462878273e-01 -1.153977529899908427e+00 4.571242146235428572e-01 -1.148969632881043035e+00 2.110433066202086039e+00 -7.263956666279018926e-01 -5.194354254495887613e-01 3.889821681935634601e-01 2.026397971457756686e+00 1.126270869096149596e+00 -3.860400128850611234e-01 -2.559743696283682812e-01 1.446375311898608240e+00
3.000182844898507395e-01 -5.799184873033825793e-01 -6.314071709269223343e-01 -4.410958655033980214e-01 -5.456239670383336016e-01 4.159339268174015447e-01 1.396122330339677031e+00 -5.284578075378610906e-01 -6.392184373832783262e-01 5.639970748632420205e-01 -1.043425288525783090e+00 1.072017198089410123e-01 3.390266630775201073e-01 1.636229160535769722e+00 -1.141486883909010652e+00 -1.263321070566822080e+00 1.684051798503601871e+00 -5.185632754303501346e-02 4.609088053089657744e-01 -1.820053471031198633e+00 2.984993077120427496e-01 4.131618159294130344e-01 1.834774655408636657e-01 -5.774534432804823147e-01 -6.562895625035600755e-01 9.020383624339820550e-01 -6.440878395589856309e-01 1.769773843469752972e-01
7.390669127191246135e-01 7.455397066475427659e-02 -4.056178533078679260e-01 8.750057506618377223e-01 1.139531494075637141e+00 7.324884876513484966e-02 3.914071350159527563e-01 -3.674205043182135477e-01 -6.962507212759110331e-01 6.784227970728272383e-02 -1.143656889458807502e+00 -4.658008803367583717e-01 1.760127510976042142e+00 -1.713890491531739890e+00 7.287834654408196222e-01 -7.582650531155216145e-01 2.231259269918743904e+00 -1.918052763581879372e+00 -6.285893145894767553e-01 4.932449364871653863e-01 -7.761532960084512045e-02 -3.465958064343849787e-01 -5.765216051903265804e-01 7.647751598921341820e-01 -1.475202842039922801e+00 1.264967569872868236e-01 -1.022495794412771719e+00 5.284403816007456900e-01
3.455292310415819523e-01 -5.183035457753563113e-01 -3.249758645423326264e-01 -2.133625076224447525e+00 7.894419968816985822e-01 -8.938316144908667882e-01 8.347521494379103180e-01 1.130495206246898254e+00 5.747670320650716258e-01 1.970893559468529732e+00 1.955114373945912032e+00 -4.449475195532262006e-01 -1.034636357889568092e+00 -1.460380024762272910e+00 1.676507735056611270e-01 1.010542937892212369e-02 1.081771660624615050e+00 -8.816564709207556222e-03 -7.877040706436222450e-01 1.272770877567969416e-01 -3.824738325570661845e-01 -4.491378647603639918e-01 -1.080888584643907357e+00 -2.001620320119337215e+00 -4.384605297044829042e-01 2.587231724853998882e-01 6.336432752426431059e-02 -4.807951417053183407e-01
-2.303413060770240772e+00 4.166812935148185293e-01 5.236498946628206363e-01 2.877508733307025390e-01 -1.921409721939434823e+00 5.798886475370644833e-01 1.248313894064528862e+00 9.076996399522838654e-01 9.328083549993522183e-01 2.351410822487974561e-01 -2.359326900300332319e+00 1.001402394690222630e+00 1.122437141948527950e+00 -1.380190389473958945e-01 8.559974726687384905e-01 7.398265475974776795e-01 8.944434597533038600e-01 -8.010034679206058661e-02 -2.583531916520385163e+00 -1.637493638266607432e+00 8.860141094789701910e-01 -1.170902011770165840e+00 -2.042388696359684008e+00 1.443295937409018403e+00 -3.192702946986618051e-01 8.232752298933211366e-01 -1.416704792001582947e+00 -1.181032708459871516e+00
-6.339274209067504717e-01 -1.017891120636554403e+00 5.588865902331489055e-01 -3.071841047038118555e-01 -1.125443610938868799e+00 7.575807413821002978e-01 -1.527640744477093193e+00 -5.655067013032237799e-01 -1.196574503154520519e+00 7.719650334128888014e-01 4.752484155568911101e-02 9.237873182661471283e-01 -4.963879565546152062e-01 -5.351661319324356736e-01 -4.112501701105296115e-01 1.095439185375230995e-01 -2.331800601766365402e-02 -1.798964046431157926e-01 -1.860625613319711436e+00 2.567152874234465365e+00 6.247501675288769096e-02 5.620408464360728829e-01 3.243768303350431093e-01 -9.234345114191817583e-01 9.880027503557183843e-01 5.718921300776070860e-01 4.375664993625206778e-01 1.286087267034867532e+00
6.252902388885763774e-01 -1.047641303677355307e+00 3.805632930847325124e+00 -4.586968237035214668e-02 -1.239797270635296794e-01 -4.161427103345807788e-01 -5.125007424370280340e-01 -4.293479348677661234e-01 -6.052038852799846991e-01 1.284462884130054050e+00 -1.818832606825620396e-02 -1.428818757890224056e+00 1.160583411346283844e+00 1.398739051926841226e+00 -1.283208746706313796e+00 7.079564848627213358e-01 -4.382033149961886975e-01 -3.367483947339627304e-01 1.073476829943787125e+00 2.066808426252678133e-01 2.990363271859643873e-02 9.129560128063070046e-01 1.039078862609680520e+00 -1.892463013846313602e-01 2.699930279374046158e-02 6.084040681803332129e-01 9.105763132689295158e-01 8.612024110401517163e-02
-7.202063330918709871e-01 -1.584108393451407082e+00 -1.367659122777383218e-01 -2.354153094690364156e+00 -6.623312044492833950e-01 -7.277342065489672725e-03 1.237590068988407399e+00 -5.601606490716052322e-01 1.044422851411283659e+00 5.848139210670969534e-01 8.059934821803754756e-03 -9.171677211692615128e-02 2.461476659471890094e-01 -2.264675537351190301e-02 -7.868301691820971389e-01 -3.850290547166444477e-01 -5.203276904735385650e-02 2.171877674491067833e-01 2.684343428155142597e-01 4.741575796001679666e-01 1.550518057086774926e+00 9.045505563761104817e-01 -3.500341916231216599e-01 -3.572920331959417717e-01 -1.028411855784993056e+00 6.002216586060032943e-01 -4.244645748811109454e-01 1.234630264387559073e+00
-1.000913367909045615e+00 1.220956036646449805e+00 3.414227624225477098e-01 4.343169372472163170e-01 -1.261435136310208982e+00 2.781973721050338012e-03 -1.747869062367293225e+00 4.276109691798747614e-02 9.275686489191573014e-02 3.798050052086762163e-01 1.284116225503265964e-02 -1.552568435420049152e-02 -1.096923298111316170e+00 1.185278975039796734e+00 1.100120294886876016e+00 1.443616881063117363e+00 -6.963406695221429077e-01 1.080918889064078181e+00 -1.071853703426977472e-01 -2.667525701354141465e-01 7.699617108130840659e-01 -9.650889395124201409e-01 -5.704658495781682603e-01 9.207303041812804345e-01 -1.112857925692825045e+00 1.262599799278053103e+00 2.132833443208177915e+00 1.340602764203179920e+00
1.007374500082427016e+00 1.484726061861064983e-01 4.210577839906187725e-01 -9.247448981965530335e-01 -1.365589558630849187e-01 7.293749785774169547e-01 -1.095593195676867637e+00 -2.373759935915481234e-01 -4.376840958291531858e-01 -9.957202812756815735e-01 -8.416138734020122136e-01 8.493709070398441918e-01 3.932254898349921146e-02 1.776158331594459128e+00 1.669832109877282589e+00 -1.177447559236005414e+00 4.127851913181047605e-01 1.663730125127709653e-02 -8.431582860792764533e-01 8.311022485919062897e-01 -6.957638543149416988e-01 1.475063916053029667e+00 -1.202653799100798615e+00 -1.234555992219808385e+00 -8.866801906001170464e-01 7.232988024301825192e-01 7.856358917531744979e-01 -2.673938391282515981e-01
-9.389106363921739806e-01 5.594589984086633105e-01 1.131957341709977305e+00 -4.054143446601059519e-01 -4.772663501532181107e-01 -2.169623064124749923e-01 6.655901234573411429e-01 6.197884406046327843e-01 3.019605040890722611e-02 -5.636011128591650321e-01 -2.444926367335933104e-01 4.183150659744833133e-01 4.501371767931406365e-01 -1.373114502332952735e-01 1.069475132135066620e+00 -8.286252673144371972e-01 -2.363216627760661992e-01 8.653259212820824109e-01 2.288138690776507778e-01 5.428650733710517207e-01 9.023150869145379893e-01 -6.562339557646231780e-01 2.587604555652558980e-01 1.034755691753085793e+00 7.485894747713428554e-01 1.317420504727473685e-01 8.308661364431492169e-01 1.755622076486885952e+00
-3.378927623767513100e-01 -1.487549627583685030e+00 -6.408546016835297010e-01 1.584643963394358979e+00 1.498625440657811447e-01 -5.980241388386765555e-01 9.137049703049157090e-01 1.579209424986829591e+00 -2.177765071546405196e+00 1.014382955501545114e+00 -5.498632183902412152e-01 1.245461271176807827e+00 -9.610641107423056884e-01 9.039808135457185756e-01 -6.547404829198406606e-01 8.209418461603462669e-01 1.569247697715587586e+00 1.129983652522966953e+00 1.711633089011193043e+00 7.043934011944069651e-02 -5.617395956047476213e-01 1.274426663775428015e+00 -1.928014175218871751e+00 2.051674745088114538e-01 5.808964195306624001e-01 -3.009317918790322954e-01 -2.528995433246825186e+00 -1.334725500563591405e+00
