1.142587202727071150e+00 -4.694142517661459291e-01 1.027178007146109628e+00 -6.735742438906811014e-01 5.010044103311636077e-01 9.284171389009400477e-02 -9.228943108577136734e-01 -1.215093222432323955e-01 -5.031276118287680843e-01 -1.883307254619760673e+00 -8.708920894295641979e-01 -7.994014315439009755e-01 5.931135505892206616e-01 7.722622287115398221e-01 -2.734616176380652575e-02 1.900488411091461605e-01 -8.559674416249013484e-02 -6.007790979958131661e-02 -1.123534159472379335e+00 -6.595115832465866523e-01 -8.349496793430171149e-01 -1.744228405993717201e+00 -1.421022260009359828e+00 9.172240790045299574e-01 -8.666558002208180067e-01 1.989969904169076598e-01 6.140861360460170282e-01 8.754240829023152148e-01
1.385325000247218830e+00 -3.299944908716656577e+00 7.183595437767340552e-01 3.039432556667839846e-01 -1.985554673780976498e-01 -4.650132258226840620e-01 -1.925508890924127955e-02 1.957308788459111160e-01 7.224354939973925971e-01 -1.354572087895598687e+00 -1.245439548777316441e+00 1.552039626897358859e+00 1.631836524026813562e+00 1.225151610482560383e+00 3.227669353114446249e-01 1.152903953896813771e+00 3.590155060475366255e-01 -4.589475378303202735e-01 6.989138960107583731e-01 -1.118039462732936862e+00 1.178356874452995695e-01 2.533721040514359535e-01 2.865726399549038739e+00 -2.170727908547136209e-01 6.760558089565908979e-01 -6.722939135417066447e-01 1.535675754651866010e+00 -1.646142605126155622e+00
1.774443809155063612e+00 -1.024124017897815708e+00 -1.279058979825007158e+00 -1.310146162593871288e+00 7.666865031172286349e-01 1.923266177653988607e-01 1.349464888134294327e+00 -1.808117667708938614e-01 -1.482392988054030691e-02 8.680155806894086501e-01 -1.241691602078608847e+00 -1.127696786317162525e+00 -2.305412648532773279e+00 8.962431463784338304e-01 7.817003434150500141e-01 -5.050141150262601464e-01 9.519451928111143379e-01 1.399852765204965488e+00 5.686295900560850436e-01 -2.925313282289065953e-02 6.887592220311654634e-01 -2.180563811938647234e-01 1.611966948312422598e+00 1.784881925243909651e+00 -2.005262282188598477e-01 9.004601972932525511e-01 -1.141085617287826315e+00 -1.328195680058330774e+00
3.093299430372340453e-01 -5.137485095669280799e-01 -8.898808791576098276e-01 6.923400470053512334e-01 -1.325057003595428266e-02 -4.222195377997919330e-01 1.530988166380694779e-02 1.160467802814195704e+00 -1.388785576900629024e-02 -9.400818087884478258e-01 -3.626470010582334424e-01 3.540242954978442547e-02 6.525373584059837584e-02 -9.119147191260559282e-01 2.668469025638370518e+00 3.398125772398442601e-01 -1.237716769265454486e+00 2.704221790248798385e+00 5.722500598433478691e-01 3.578943352817690604e-01 -4.992038351189716505e-01 3.196782731380008458e-01 5.462863876497692228e-02 9.462168346217011416e-01 1.794255182216575040e-01 -1.488135138170027849e+00 -1.162420042337294124e+00 -1.354900129452414559e+00
-5.664482930657763760e-01 -3.132842415737743247e-01 4.157101286689021125e-01 -8.978876954415329070e-01 -9.812637917331573645e-01 -1.051529694334280451e+00 3.796184208019501849e-01 6.635484031657373771e-01 1.758654766136213687e-01 -1.503743774504871789e-01 -7.163865902856370038e-01 -1.541162386168930531e-01 -2.745460771072124606e-01 1.311233942408815412e-01 -5.430588823133427473e-02 7.158198111233039507e-01 -2.395577673860411760e-01 -1.225048556067157568e+00 1.014319950004364479e+00 1.086286333673566640e+00 -5.541791772204327504e-01 4.491583880502977300e-01 4.830477235246335432e-01 9.611698849289944044e-03 9.627373283758533518e-01 -1.778226429960062083e+00 1.035824558988477362e+00 6.743077350807655801e-01
7.910777598547568124e-01 9.333701329277988012e-02 2.509835828376258959e-01 -1.343892593590301665e+00 1.075060682812301494e+00 1.477568863365372187e-01 -1.707312072163060135e+00 -6.915192168336351530e-01 4.609956062813815869e-01 4.118545750781944098e-02 1.206632584689545373e+00 2.768736079584923626e-01 -1.474012223888933326e-01 1.300622662359369741e-01 -1.276961615639673919e+00 -2.194208552070771312e-01 1.709486967367276344e+00 1.015869168883011708e+00 -5.759478481917520987e-02 -2.360723518570997659e-01 -3.781065862792410970e-01 -4.074622468223639271e-01 4.130148967427312856e-01 1.397710539425409904e+00 -8.735976810155179906e-02 -1.297295826591994050e+00 7.602360387920306106e-01 9.090014210218309021e-01
-1.350702878064093948e+00 -7.069399094540036455e-01 2.310899333681598611e-01 -5.811295923963929466e-01 -1.246520700227069511e+00 -1.647092831323494933e+00 1.561504827447310451e+00 7.357129535938515819e-01 -9.868395049914223671e-01 9.450557710839141423e-01 1.370995377724206987e+00 -5.159261849057734661e-01 -7.913115177787305443e-01 -1.929344667159812010e+00 6.957576834673108168e-01 9.165478186772235691e-02 1.250746333474152205e+00 1.907830908880706389e+00 -2.567835805126949533e-01 -8.841622796517393246e-01 -1.118150179315179793e+00 1.146625641647174954e+00 -6.916596933533273317e-01 9.627024457011130743e-01 -7.008043227457991797e-01 -1.789278968489845800e+00 1.343010302201679718e+00 -2.556034920842312763e-01
5.155348106655422979e-01 1.787157213986848125e+00 -1.061303043816220537e+00 -1.637298554635648662e+00 -9.013400639378722490e-01 -1.806316392899238510e+00 -1.458835273520726394e+00 2.138910537575083648e+00 -1.738553236152558634e+00 8.176758263694535733e-01 1.511172725390973470e+00 4.152910066112827647e-01 -1.010272863810774413e-01 6.001138197349881187e-01 -1.465685840016071495e+00 -1.581694307389658993e+00 2.357392972045469215e-01 -6.732327558282674707e-02 2.301909271363312137e-01 1.189852380730923365e+00 -7.095509048582917533e-01 -3.234855943374903009e-01 5.687836519695914639e-01 -3.058554190113808247e+00 1.039515007213368758e+00 -1.368290791633226089e+00 7.654405129468955238e-01 -2.803050650412659550e-01
9.348262468485843968e-01 -1.286347110742975808e-01 1.133675816485072013e-01 -5.150205491371073752e-01 -1.014583617716450670e+00 -1.888661564312668517e+00 4.358748916281281471e-01 -8.670927849462062298e-02 1.101804499499012380e+00 3.447669571469103578e-01 -3.440753072880908814e-01 -8.424657562095826391e-01 -7.093242946455745601e-01 -1.734231252242882382e-01 1.678515493907474010e+00 -7.341738471676251265e-01 3.904262365413362912e-01 6.252479130538396435e-01 3.577755005757764506e-01 -1.577570593336510285e-01 4.220220301425025577e-01 1.524919966106603519e+00 6.949214463126487384e-01 1.060183438094403074e+00 2.888088687018200984e-01 -7.242984242597565459e-01 -1.011674861633781397e+00 -1.204916304666121540e+00
-2.522177189988878895e-02 6.202822698742562757e-01 -7.923785177733564389e-01 -3.951138241435380172e-01 6.077360227421945149e-01 2.915183666539518104e-01 1.185737338338991087e+00 1.657052070387490250e+00 5.507580031331601456e-01 5.713861337899897030e-01 2.210344139453362944e-01 6.078682174282843409e-01 6.901141895644189450e-01 4.616926362662970851e-01 -9.179927602968909195e-01 -2.343750823414784135e-01 2.612874990364972283e-01 -1.146393945263915359e+00 -1.612676772895244692e+00 -7.642054753947370438e-01 1.348926835975470563e-02 1.536839217875434838e-03 -7.013395091953040783e-01 -6.215773060801631500e-01 -9.069780403064086061e-01 1.432203898137488496e-01 -5.018498392709693778e-01 1.993447270903085711e+00
-1.078295419320481896e+00 -4.337923597091390970e-01 7.780652402672771917e-01 -4.571818763675836172e-01 -1.204050178417970685e+00 9.689071908873330141e-01 -8.281426987554962871e-01 6.486850674307849118e-01 5.127568862069171729e-01 -2.706464400090686229e-01 7.472985760068919792e-01 6.333808557678385354e-01 -6.284200855832116073e-01 -1.677381163253897078e-01 -3.989912248759815427e-01 4.946321085244920202e-01 2.826154317363553381e-01 6.723837772123467671e-01 8.549056046145834253e-01 9.234324397540166762e-01 -6.190385560213526039e-01 -1.016816105256659469e-01 1.230770738127189956e+00 -1.913028565340999743e+00 4.847073488615822323e-01 -7.935961832484712541e-01 -7.653664617105945811e-02 -1.146830602059720983e+00
-1.066880867949166617e-01 4.432854237218005200e-01 -1.399050838588154155e+00 -1.032068051877514936e+00 3.424076604512187871e-01 6.201715047751404919e-01 6.355222595665152019e-01 -8.165584131628729203e-01 6.249494384482499054e-01 -1.290310155096783928e+00 -2.032894625672929667e+00 -9.896785029320528393e-01 1.607074083228753891e-01 -8.985351554710557798e-01 1.503380401762708818e+00 -3.953087685438012588e-01 6.343484960909142600e-01 -8.258226157406580725e-01 2.539821597520237617e-01 1.430569281627261491e+00 5.618015921887504760e-01 1.987490363459032960e-01 -1.379894159914037743e+00 1.108839651902582046e+00 1.326790071584682262e-01 1.141220956831823674e+00 -1.648086672196744873e+00 -1.492228112867278522e+00
-6.851577198457557971e-01 -7.990769939053532500e-02 -8.253471573605196676e-01 2.304090068899321553e-01 -2.375349965638101080e-01 1.215855940676157543e+00 1.163427262236168325e+00 -2.630982419039090026e+00 1.475065506650393266e+00 1.346497649419143849e+00 1.381661231996708761e+00 -2.517968303065619695e-01 -3.697253610384055311e-01 1.610638815279216596e+00 1.076448085162934332e-02 -3.862777811252359195e-01 1.617893137160129280e+00 6.036922011203805782e-01 1.344316578180178245e+00 5.782772291004513177e-01 9.061426215194664513e-01 6.152052124567882752e-01 -1.058876111693301425e+00 -6.637838094046111248e-01 9.818463981172025068e-02 2.306656779587628880e-01 -1.080173287776408753e+00 2.727882146123998368e-03
1.167681418536620913e-01 3.807108563001176949e-01 8.439503648129612623e-01 -5.785535316332304778e-02 -1.360165428737030724e-01 -1.239320927455683369e-01 -9.544581007846786314e-01 9.631485163478141764e-01 8.964510727999961404e-01 -4.140012974692440784e-01 4.292738801577129504e-01 1.136170321883977152e+00 -8.997617367824792822e-01 6.173448390042243217e-01 -2.404003826694399493e+00 -1.757413395725710537e+00 -3.978218311738622726e-01 4.682795452747264831e-01 9.757580119776637639e-01 -1.682138216115416363e-01 -7.712408726098977096e-01 1.537210440057173999e+00 1.219041536842577544e+00 -2.446573892849908560e+00 2.327426504695404297e-01 7.010128286472708803e-01 8.724440878628272888e-02 1.450689688607131655e+00
9.727467778713010382e-01 -1.197681551763568331e-01 -5.612891867359215414e-01 -1.442504348038720963e+00 9.576352663950205013e-01 7.551866877220425600e-01 -1.454569874543889973e+00 7.253765305145530862e-01 1.510561292937345979e+00 -6.402497746697162206e-01 -3.650961888661869437e-01 1.710475509659094451e+00 -8.623615824037674793e-01 5.126473309236533743e-02 -9.889643841544314418e-01 1.756944011115747495e-01 -3.257782657874056520e-01 1.950503051411579758e+00 -8.571938701344016254e-01 2.143106755058602708e+00 8.127150826656175386e-01 5.345149231205309492e-01 -1.851276021073021916e+00 3.713425393681283881e-01 -4.063990632698923355e-01 -5.415677926322985947e-01 -7.441681264102201210e-01 3.499783248901400246e-01
