5.636987203317677109e-01 -1.664589883324915975e+00 -7.234112352050097172e-01 1.404099532906545600e-01 -8.653007777509729159e-01 -6.294138387153159764e-01 1.999590450972734135e-01 5.154710690296596676e-01 -3.820506126263131103e-02 -3.532930773521175127e-01 -1.567180397616730225e+00 7.117590411328845734e-01 4.462263314947663151e-01 1.416422780333279396e+00 -1.094824409994848313e+00 7.651880119180326512e-01 1.193577330596224395e-01 3.844169197301005036e-01 1.287138296253077963e+00 2.272511250969510843e-01 -1.429121618666932436e+00 -6.239995725685469896e-01 -5.344734147153923885e-04 2.775289253793054578e-01 -4.323144621948608046e-01 -2.002379791034506265e-02 6.652709200054480743e-01 7.321987364827740041e-01
-9.229728016452324324e-01 9.959566690724432902e-01 -3.829354311780286402e-01 1.272692305813266922e-01 -1.767283536003100980e-02 -7.542737556139554600e-02 -7.662020877280398823e-01 1.490894434456880580e-01 -1.875950224123505539e+00 -3.105843616753536929e-01 -7.291863348917178023e-01 -1.021523086139538572e+00 -6.880987118496482147e-01 2.415918455953144361e-01 1.004544974872890739e+00 -5.631879999405619008e-01 -9.683288662424253124e-01 1.051051055902390230e+00 -7.506304844024527245e-01 -8.101089642806478253e-01 -4.214362621820563759e-01 1.168389916083227176e+00 2.111957368902797949e+00 -1.300983699762144896e+00 6.789313908378383777e-01 6.241041887400849975e-01 -1.224178001282183681e+00 -1.668447761685478481e+00
1.640285761943877096e+00 5.482627134619375564e-01 7.322076959131343932e-01 6.562242900051578065e-01 -2.122759976646461766e+00 1.698386414627954810e+00 7.689211680755047018e-01 -1.357284401225107295e-01 -7.537985122318699958e-03 -1.740732691720795922e+00 1.472695224259666036e+00 1.150313786335682265e+00 5.293324968969079780e-01 1.800029283715210704e-01 -1.249224384278061262e+00 9.824370334359893153e-01 2.140926999865487179e+00 4.548972344378124366e-01 4.294377632155010338e-01 -1.070232868656386005e+00 3.439346186162509644e-01 1.396874300745402919e-01 1.760044720427577092e+00 -7.226827947184724099e-01 1.789321061693005310e+00 -1.844834619271931597e+00 1.878304543028518764e-02 -1.258591172991845308e+00
5.377531097546861538e-01 1.535613740530459070e+00 2.865906846987236190e-01 -6.358952686293329881e-01 1.431758370146474446e+00 4.075981235926802726e-01 1.069110580558803036e-01 4.149106894441431104e-01 -1.680903650719545839e+00 -2.301395156765497774e+00 1.496388023564703795e+00 1.184722740989437417e+00 -2.382672328650990323e+00 8.175329165294081823e-01 8.316648855961391584e-01 -1.933523037909002706e+00 -6.380411796792578860e-01 -1.866695109151329246e-01 -6.640966337144897924e-01 1.140389140725696526e+00 -1.977780588006321727e+00 -4.938683764391885167e-01 8.629556225480767839e-01 5.704002005127447594e-01 -4.400553569885929939e-01 3.985199598572731344e-03 2.713731804542613979e-01 1.023267282085092544e+00
-1.592370075583779299e+00 1.136367989345243856e+00 9.095726413921769726e-01 -8.502201402948388054e-02 -2.188682179563802011e-01 1.352638206959049683e+00 -3.534072237354860535e-01 -1.753988105957431931e-01 -1.107610030284360558e-01 5.898276001377457112e-01 6.544462787162079742e-01 -3.831648096541722531e-02 -1.608059186194815915e+00 -5.845080009455373010e-02 1.622683505709662022e+00 -1.262180610894042543e+00 4.196776208718897005e-01 1.672781325616091497e+00 8.461248794910907201e-01 -9.995832608660239205e-02 3.208253222693407264e-02 1.302252560778021984e+00 2.439002290944807527e-01 9.064049968748764119e-01 -6.430457680244413554e-01 2.763277229687091996e+00 1.518339132782718037e+00 -2.043206583366369511e+00
